{
  "model_name": "sequential",
  "layers": [
    {
      "name": "dense",
      "class": "Dense",
      "type": "dense",
      "in_features": 9,
      "out_features": 9,
      "weights": [
        [
          0.5178921818733215,
          0.03444039449095726,
          0.1366792470216751,
          -0.11267422884702682,
          -0.271756649017334,
          -0.48639845848083496,
          0.29342955350875854,
          0.3350158631801605,
          -0.2320735901594162
        ],
        [
          -0.31162622570991516,
          0.9044628143310547,
          -0.5316214561462402,
          0.8820865154266357,
          0.45029598474502563,
          0.26419633626937866,
          0.33622828125953674,
          0.08694130182266235,
          -0.9499896168708801
        ],
        [
          0.7703064680099487,
          0.5840566158294678,
          0.6637148857116699,
          -0.7407517433166504,
          0.3215564787387848,
          0.7523659467697144,
          -0.4128260314464569,
          -0.736182451248169,
          -0.6721973419189453
        ],
        [
          -0.8471930623054504,
          0.609441339969635,
          0.30092599987983704,
          -0.55181485414505,
          0.5311655402183533,
          -0.6692922711372375,
          -0.4255136251449585,
          -0.9487937688827515,
          -0.9906347990036011
        ],
        [
          -0.5970053672790527,
          0.08889351040124893,
          0.17686213552951813,
          0.7667461037635803,
          0.8385478854179382,
          0.1658950299024582,
          -0.12490151077508926,
          0.9234617352485657,
          -0.08029946684837341
        ],
        [
          0.1976800113916397,
          -0.4434722661972046,
          0.4078066349029541,
          0.710794985294342,
          0.9332612752914429,
          -0.6187745332717896,
          0.4522991478443146,
          -0.055864766240119934,
          0.44569745659828186
        ],
        [
          0.23355433344841003,
          0.35978129506111145,
          0.3084835112094879,
          0.4767462909221649,
          0.9845660328865051,
          -0.1968444585800171,
          -0.8445929288864136,
          0.558829665184021,
          -0.18632909655570984
        ],
        [
          -0.4066501259803772,
          0.20569664239883423,
          0.3528112769126892,
          0.26884177327156067,
          -0.2148480862379074,
          0.5477136969566345,
          0.11203937977552414,
          -0.1361672729253769,
          -0.6033240556716919
        ],
        [
          -0.7094250321388245,
          -0.4165017902851105,
          0.45067813992500305,
          0.397236704826355,
          0.09882868826389313,
          -0.9956831932067871,
          -0.8554571270942688,
          0.7961812615394592,
          0.3887676000595093
        ]
      ],
      "bias": [
        -0.652791440486908,
        0.4857385754585266,
        0.3399883508682251,
        -0.5432576537132263,
        0.626308798789978,
        0.04743925482034683,
        -0.8149053454399109,
        -0.06701398640871048,
        -0.8343576192855835
      ]
    },
    {
      "name": "dense_1",
      "class": "Dense",
      "type": "dense",
      "in_features": 9,
      "out_features": 9,
      "weights": [
        [
          0.40946877002716064,
          0.8359659314155579,
          0.501743495464325,
          -0.6233413219451904,
          0.26321250200271606,
          -0.7826078534126282,
          -0.4030330181121826,
          0.23558750748634338,
          0.35790732502937317
        ],
        [
          -0.9246044158935547,
          -0.8506463170051575,
          0.6971443295478821,
          0.2753283977508545,
          0.3551315665245056,
          -0.4950565993785858,
          -0.03397263213992119,
          0.30823051929473877,
          0.9301021099090576
        ],
        [
          0.8756608366966248,
          0.947758674621582,
          0.36148378252983093,
          0.8640984296798706,
          0.5417247414588928,
          -0.7731972336769104,
          0.7100947499275208,
          -0.3686775863170624,
          0.5020554065704346
        ],
        [
          -0.8721712827682495,
          -0.012073258869349957,
          -0.9094957113265991,
          -0.2533959150314331,
          -0.7165038585662842,
          -0.8880872130393982,
          -0.87605220079422,
          0.4294760525226593,
          0.7395346164703369
        ],
        [
          0.3704315721988678,
          -0.46893376111984253,
          0.040132127702236176,
          0.16639317572116852,
          0.461635559797287,
          0.42238759994506836,
          -0.1899067461490631,
          -0.05328519642353058,
          -0.5316430926322937
        ],
        [
          0.30930638313293457,
          0.6529563069343567,
          -0.33502402901649475,
          0.5810956954956055,
          0.0749383270740509,
          -0.9450753927230835,
          -0.7742246985435486,
          0.0999789610505104,
          0.06277167797088623
        ],
        [
          -0.8144721984863281,
          0.38587501645088196,
          -0.7992511987686157,
          -0.9949320554733276,
          0.1586829125881195,
          0.505125105381012,
          0.46931707859039307,
          -0.20013269782066345,
          -0.3868221938610077
        ],
        [
          0.9895885586738586,
          -0.8150780200958252,
          -0.3320003151893616,
          0.19493287801742554,
          -0.17626062035560608,
          0.09920528531074524,
          -0.6762439608573914,
          -0.8808344006538391,
          -0.8875083923339844
        ],
        [
          0.4632905423641205,
          0.8556349277496338,
          -0.8440659642219543,
          0.3019723892211914,
          -0.4358964264392853,
          0.40096908807754517,
          -0.9843592047691345,
          -0.6230587363243103,
          -0.5528913736343384
        ]
      ],
      "bias": [
        0.5494487285614014,
        -0.6231415867805481,
        0.9711052179336548,
        0.012634610757231712,
        0.47891563177108765,
        0.49295589327812195,
        0.02242102101445198,
        -0.6377785801887512,
        -0.8122759461402893
      ]
    },
    {
      "name": "dense_2",
      "class": "Dense",
      "type": "dense",
      "in_features": 9,
      "out_features": 4,
      "weights": [
        [
          0.6709615588188171,
          0.9426813125610352,
          -0.8179298639297485,
          -0.38860321044921875
        ],
        [
          0.47580698132514954,
          0.6853061318397522,
          0.22744975984096527,
          -0.9871174693107605
        ],
        [
          -0.08978069573640823,
          -0.11305556446313858,
          0.6075830459594727,
          0.7365884184837341
        ],
        [
          -0.3294244706630707,
          0.06629526615142822,
          0.49607735872268677,
          -0.6890767216682434
        ],
        [
          -0.7716196775436401,
          0.5375924706459045,
          0.7038816809654236,
          -0.7722657322883606
        ],
        [
          -0.38274770975112915,
          0.6833270192146301,
          -0.7108416557312012,
          0.725125789642334
        ],
        [
          -0.10363302379846573,
          -0.2083221673965454,
          -0.20988787710666656,
          -0.7143542766571045
        ],
        [
          0.6255040168762207,
          -0.49969151616096497,
          -0.04049834609031677,
          0.8608910441398621
        ],
        [
          0.11231125146150589,
          0.8204871416091919,
          0.16960710287094116,
          0.23045474290847778
        ]
      ],
      "bias": [
        -0.393574595451355,
        -0.20733140408992767,
        0.7894353866577148,
        0.491555392742157
      ]
    }
  ]
}