{
    "layers": [
        9,
        9,
        4
    ],
    "weights": [
        [
            [
                0.40946877002716064,
                0.8359659314155579,
                0.501743495464325,
                -0.6233413219451904,
                0.26321250200271606,
                -0.7826078534126282,
                -0.4030330181121826,
                0.23558750748634338,
                0.35790732502937317
            ],
            [
                -0.9246044158935547,
                -0.8506463170051575,
                0.6971443295478821,
                0.2753283977508545,
                0.3551315665245056,
                -0.4950565993785858,
                -0.03397263213992119,
                0.30823051929473877,
                0.9301021099090576
            ],
            [
                0.8756608366966248,
                0.947758674621582,
                0.36148378252983093,
                0.8640984296798706,
                0.5417247414588928,
                -0.7731972336769104,
                0.7100947499275208,
                -0.3686775863170624,
                0.5020554065704346
            ],
            [
                -0.8721712827682495,
                -0.012073258869349957,
                -0.9094957113265991,
                -0.2533959150314331,
                -0.7165038585662842,
                -0.8880872130393982,
                -0.87605220079422,
                0.4294760525226593,
                0.7395346164703369
            ],
            [
                0.3704315721988678,
                -0.46893376111984253,
                0.040132127702236176,
                0.16639317572116852,
                0.461635559797287,
                0.42238759994506836,
                -0.1899067461490631,
                -0.05328519642353058,
                -0.5316430926322937
            ],
            [
                0.30930638313293457,
                0.6529563069343567,
                -0.33502402901649475,
                0.5810956954956055,
                0.0749383270740509,
                -0.9450753927230835,
                -0.7742246985435486,
                0.0999789610505104,
                0.06277167797088623
            ],
            [
                -0.8144721984863281,
                0.38587501645088196,
                -0.7992511987686157,
                -0.9949320554733276,
                0.1586829125881195,
                0.505125105381012,
                0.46931707859039307,
                -0.20013269782066345,
                -0.3868221938610077
            ],
            [
                0.9895885586738586,
                -0.8150780200958252,
                -0.3320003151893616,
                0.19493287801742554,
                -0.17626062035560608,
                0.09920528531074524,
                -0.6762439608573914,
                -0.8808344006538391,
                -0.8875083923339844
            ],
            [
                0.4632905423641205,
                0.8556349277496338,
                -0.8440659642219543,
                0.3019723892211914,
                -0.4358964264392853,
                0.40096908807754517,
                -0.9843592047691345,
                -0.6230587363243103,
                -0.5528913736343384
            ]
        ],
        [
            [
                0.6709615588188171,
                0.9426813125610352,
                -0.8179298639297485,
                -0.38860321044921875
            ],
            [
                0.47580698132514954,
                0.6853061318397522,
                0.22744975984096527,
                -0.9871174693107605
            ],
            [
                -0.08978069573640823,
                -0.11305556446313858,
                0.6075830459594727,
                0.7365884184837341
            ],
            [
                -0.3294244706630707,
                0.06629526615142822,
                0.49607735872268677,
                -0.6890767216682434
            ],
            [
                -0.7716196775436401,
                0.5375924706459045,
                0.7038816809654236,
                -0.7722657322883606
            ],
            [
                -0.38274770975112915,
                0.6833270192146301,
                -0.7108416557312012,
                0.725125789642334
            ],
            [
                -0.10363302379846573,
                -0.2083221673965454,
                -0.20988787710666656,
                -0.7143542766571045
            ],
            [
                0.6255040168762207,
                -0.49969151616096497,
                -0.04049834609031677,
                0.8608910441398621
            ],
            [
                0.11231125146150589,
                0.8204871416091919,
                0.16960710287094116,
                0.23045474290847778
            ]
        ]
    ]
}